digraph Tree {
node [shape=box, style="filled, rounded", color="black", fontname=helvetica] ;
edge [fontname=helvetica] ;
0 [label=<sepal length &le; 5.55<br/>entropy = 1.5802<br/>samples = 105<br/>value = [31, 37, 37]<br/>class = Iris-versicolor>, fillcolor="#39e58100"] ;
1 [label=<sepal width &le; 2.8<br/>entropy = 0.9814<br/>samples = 42<br/>value = [30, 11, 1]<br/>class = Iris-setosa>, fillcolor="#e581399c"] ;
0 -> 1 [labeldistance=2.5, labelangle=45, headlabel="True"] ;
2 [label=<sepal length &le; 4.95<br/>entropy = 0.8167<br/>samples = 12<br/>value = [1, 10, 1]<br/>class = Iris-versicolor>, fillcolor="#39e581d1"] ;
1 -> 2 ;
3 [label=<sepal length &le; 4.7<br/>entropy = 1.585<br/>samples = 3<br/>value = [1, 1, 1]<br/>class = Iris-setosa>, fillcolor="#e5813900"] ;
2 -> 3 ;
4 [label=<entropy = 0.0<br/>samples = 1<br/>value = [1, 0, 0]<br/>class = Iris-setosa>, fillcolor="#e58139ff"] ;
3 -> 4 ;
5 [label=<sepal width &le; 2.45<br/>entropy = 1.0<br/>samples = 2<br/>value = [0, 1, 1]<br/>class = Iris-versicolor>, fillcolor="#39e58100"] ;
3 -> 5 ;
6 [label=<entropy = 0.0<br/>samples = 1<br/>value = [0, 1, 0]<br/>class = Iris-versicolor>, fillcolor="#39e581ff"] ;
5 -> 6 ;
7 [label=<entropy = 0.0<br/>samples = 1<br/>value = [0, 0, 1]<br/>class = Iris-virginica>, fillcolor="#8139e5ff"] ;
5 -> 7 ;
8 [label=<entropy = 0.0<br/>samples = 9<br/>value = [0, 9, 0]<br/>class = Iris-versicolor>, fillcolor="#39e581ff"] ;
2 -> 8 ;
9 [label=<sepal length &le; 5.35<br/>entropy = 0.2108<br/>samples = 30<br/>value = [29, 1, 0]<br/>class = Iris-setosa>, fillcolor="#e58139f6"] ;
1 -> 9 ;
10 [label=<entropy = 0.0<br/>samples = 26<br/>value = [26, 0, 0]<br/>class = Iris-setosa>, fillcolor="#e58139ff"] ;
9 -> 10 ;
11 [label=<sepal width &le; 3.2<br/>entropy = 0.8113<br/>samples = 4<br/>value = [3, 1, 0]<br/>class = Iris-setosa>, fillcolor="#e58139aa"] ;
9 -> 11 ;
12 [label=<entropy = 0.0<br/>samples = 1<br/>value = [0, 1, 0]<br/>class = Iris-versicolor>, fillcolor="#39e581ff"] ;
11 -> 12 ;
13 [label=<entropy = 0.0<br/>samples = 3<br/>value = [3, 0, 0]<br/>class = Iris-setosa>, fillcolor="#e58139ff"] ;
11 -> 13 ;
14 [label=<sepal length &le; 7.05<br/>entropy = 1.0832<br/>samples = 63<br/>value = [1, 26, 36]<br/>class = Iris-virginica>, fillcolor="#8139e545"] ;
0 -> 14 [labeldistance=2.5, labelangle=-45, headlabel="False"] ;
15 [label=<sepal width &le; 3.25<br/>entropy = 1.1162<br/>samples = 53<br/>value = [1, 26, 26]<br/>class = Iris-versicolor>, fillcolor="#39e58100"] ;
14 -> 15 ;
16 [label=<sepal length &le; 6.15<br/>entropy = 0.9918<br/>samples = 47<br/>value = [0, 26, 21]<br/>class = Iris-versicolor>, fillcolor="#39e58131"] ;
15 -> 16 ;
17 [label=<sepal width &le; 2.55<br/>entropy = 0.9183<br/>samples = 24<br/>value = [0, 16, 8]<br/>class = Iris-versicolor>, fillcolor="#39e5817f"] ;
16 -> 17 ;
18 [label=<sepal length &le; 5.85<br/>entropy = 0.9183<br/>samples = 3<br/>value = [0, 1, 2]<br/>class = Iris-virginica>, fillcolor="#8139e57f"] ;
17 -> 18 ;
19 [label=<entropy = 0.0<br/>samples = 1<br/>value = [0, 0, 1]<br/>class = Iris-virginica>, fillcolor="#8139e5ff"] ;
18 -> 19 ;
20 [label=<entropy = 1.0<br/>samples = 2<br/>value = [0, 1, 1]<br/>class = Iris-versicolor>, fillcolor="#39e58100"] ;
18 -> 20 ;
21 [label=<sepal length &le; 5.75<br/>entropy = 0.8631<br/>samples = 21<br/>value = [0, 15, 6]<br/>class = Iris-versicolor>, fillcolor="#39e58199"] ;
17 -> 21 ;
22 [label=<entropy = 0.5436<br/>samples = 8<br/>value = [0, 7, 1]<br/>class = Iris-versicolor>, fillcolor="#39e581db"] ;
21 -> 22 ;
23 [label=<entropy = 0.9612<br/>samples = 13<br/>value = [0, 8, 5]<br/>class = Iris-versicolor>, fillcolor="#39e58160"] ;
21 -> 23 ;
24 [label=<sepal width &le; 2.6<br/>entropy = 0.9877<br/>samples = 23<br/>value = [0, 10, 13]<br/>class = Iris-virginica>, fillcolor="#8139e53b"] ;
16 -> 24 ;
25 [label=<entropy = 0.0<br/>samples = 2<br/>value = [0, 2, 0]<br/>class = Iris-versicolor>, fillcolor="#39e581ff"] ;
24 -> 25 ;
26 [label=<sepal length &le; 6.55<br/>entropy = 0.9587<br/>samples = 21<br/>value = [0, 8, 13]<br/>class = Iris-virginica>, fillcolor="#8139e562"] ;
24 -> 26 ;
27 [label=<entropy = 0.8113<br/>samples = 12<br/>value = [0, 3, 9]<br/>class = Iris-virginica>, fillcolor="#8139e5aa"] ;
26 -> 27 ;
28 [label=<entropy = 0.9911<br/>samples = 9<br/>value = [0, 5, 4]<br/>class = Iris-versicolor>, fillcolor="#39e58133"] ;
26 -> 28 ;
29 [label=<sepal width &le; 3.7<br/>entropy = 0.65<br/>samples = 6<br/>value = [1, 0, 5]<br/>class = Iris-virginica>, fillcolor="#8139e5cc"] ;
15 -> 29 ;
30 [label=<entropy = 0.0<br/>samples = 5<br/>value = [0, 0, 5]<br/>class = Iris-virginica>, fillcolor="#8139e5ff"] ;
29 -> 30 ;
31 [label=<entropy = 0.0<br/>samples = 1<br/>value = [1, 0, 0]<br/>class = Iris-setosa>, fillcolor="#e58139ff"] ;
29 -> 31 ;
32 [label=<entropy = 0.0<br/>samples = 10<br/>value = [0, 0, 10]<br/>class = Iris-virginica>, fillcolor="#8139e5ff"] ;
14 -> 32 ;
}